Build started 2015/6/24 13:53:18.
     1>Project "C:\Users\chenql\Documents\Visual Studio 2013\Projects\CLdemo - 副本\CLdemo\CLdemo.vcxproj" on node 2 (Build target(s)).
     1>C:\Program Files (x86)\MSBuild\Microsoft.Cpp\v4.0\V120\Microsoft.CppBuild.targets(388,5): warning MSB8028: The intermediate directory (Debug\) contains files shared from another project (SlideWindow.vcxproj).  This can lead to incorrect clean and rebuild behavior.
     1>ClCompile:
         C:\Program Files (x86)\Microsoft Visual Studio 12.0\VC\bin\CL.exe /c /I"C:\Program Files (x86)\Intel\OpenCL SDK\4.6\include" /ZI /nologo /W3 /WX- /sdl /Od /Oy- /D WIN32 /D _DEBUG /D _CONSOLE /D _LIB /D _CRT_SECURE_NO_WARNINGS /D _UNICODE /D UNICODE /Gm /EHsc /RTC1 /MDd /GS /fp:precise /Zc:wchar_t /Zc:forScope /Fo"Debug\\" /Fd"Debug\vc120.pdb" /Gd /TP /analyze- /errorReport:prompt OpenClToolsBase.cpp
         OpenClToolsBase.cpp
     1>c:\users\chenql\documents\visual studio 2013\projects\cldemo - 副本\cldemo\opencltoolsbase.cpp(125): warning C4244: 'initializing' : conversion from 'std::streamsize' to 'size_t', possible loss of data
     1>c:\users\chenql\documents\visual studio 2013\projects\cldemo - 副本\cldemo\opencltoolsbase.cpp(160): warning C4244: 'initializing' : conversion from 'std::streamsize' to 'size_t', possible loss of data
       Link:
         C:\Program Files (x86)\Microsoft Visual Studio 12.0\VC\bin\link.exe /ERRORREPORT:PROMPT /OUT:"C:\Users\chenql\Documents\Visual Studio 2013\Projects\CLdemo - 副本\Debug\CLdemo.exe" /INCREMENTAL /NOLOGO /LIBPATH:"C:\Program Files (x86)\Intel\OpenCL SDK\4.6\lib\x86" /LIBPATH:"C:\Program Files (x86)\Intel\OpenCL SDK\4.6\lib\x64" opencv_ml249d.lib opencv_calib3d249d.lib opencv_contrib249d.lib opencv_core249d.lib opencv_features2d249d.lib opencv_flann249d.lib opencv_gpu249d.lib opencv_highgui249d.lib opencv_imgproc249d.lib opencv_legacy249d.lib opencv_objdetect249d.lib opencv_ts249d.lib opencv_video249d.lib opencv_nonfree249d.lib opencv_ocl249d.lib opencv_photo249d.lib opencv_stitching249d.lib opencv_superres249d.lib opencv_videostab249d.lib OpenCL.lib kernel32.lib user32.lib gdi32.lib winspool.lib comdlg32.lib advapi32.lib shell32.lib ole32.lib oleaut32.lib uuid.lib odbc32.lib odbccp32.lib /MANIFEST /MANIFESTUAC:"level='asInvoker' uiAccess='false'" /manifest:embed /DEBUG /PDB:"C:\Users\chenql\Documents\Visual Studio 2013\Projects\CLdemo - 副本\Debug\CLdemo.pdb" /SUBSYSTEM:CONSOLE /TLBID:1 /DYNAMICBASE /NXCOMPAT /IMPLIB:"C:\Users\chenql\Documents\Visual Studio 2013\Projects\CLdemo - 副本\Debug\CLdemo.lib" /MACHINE:X86 Debug\lib_ocl.obj
         Debug\main.obj
         Debug\MemTracker.obj
         Debug\OCL_Utils.obj
         Debug\OpenClToolsBase.obj
         Debug\OpenCLToolsPredict.obj
         Debug\rectangles.obj
         Debug\svm.obj
         Debug\SVMDetector.obj
         Debug\SvmPredict.obj
         CLdemo.vcxproj -> C:\Users\chenql\Documents\Visual Studio 2013\Projects\CLdemo - 副本\Debug\CLdemo.exe
     1>Done Building Project "C:\Users\chenql\Documents\Visual Studio 2013\Projects\CLdemo - 副本\CLdemo\CLdemo.vcxproj" (Build target(s)).

Build succeeded.

Time Elapsed 00:00:01.59
