生成启动时间为 2015/6/24 11:54:29。
     1>项目“D:\Workspace\VS Workspace\OpenCV\SlideWindowCL\SlideWindow\SlideWindow.vcxproj”在节点 2 上(Build 个目标)。
     1>ClCompile:
         S:\Microsoft\VS2013\VC\bin\CL.exe /c /I"S:\Intel\OpenCL SDK\4.6\include" /ZI /nologo /W3 /WX- /sdl /Od /Oy- /D WIN32 /D _DEBUG /D _CONSOLE /D _LIB /D _CRT_SECURE_NO_WARNINGS /D _UNICODE /D UNICODE /Gm /EHsc /RTC1 /MDd /GS /fp:precise /Zc:wchar_t /Zc:forScope /Fo"Debug\\" /Fd"Debug\vc120.pdb" /Gd /TP /analyze- /errorReport:prompt SVMDetector.cpp
         SVMDetector.cpp
     1>d:\workspace\vs workspace\opencv\slidewindowcl\slidewindow\svm.h(15): warning C4068: 未知的杂注
     1>d:\workspace\vs workspace\opencv\slidewindowcl\slidewindow\svmdetector.cpp(67): warning C4018: “<”: 有符号/无符号不匹配
     1>d:\workspace\vs workspace\opencv\slidewindowcl\slidewindow\svmdetector.cpp(71): warning C4018: “<”: 有符号/无符号不匹配
     1>d:\workspace\vs workspace\opencv\slidewindowcl\slidewindow\svmdetector.cpp(85): warning C4244: “return”: 从“double”转换到“int”，可能丢失数据
     1>d:\workspace\vs workspace\opencv\slidewindowcl\slidewindow\svmdetector.cpp(63): warning C4101: “endptr”: 未引用的局部变量
     1>d:\workspace\vs workspace\opencv\slidewindowcl\slidewindow\svmdetector.cpp(63): warning C4101: “idx”: 未引用的局部变量
     1>d:\workspace\vs workspace\opencv\slidewindowcl\slidewindow\svmdetector.cpp(63): warning C4101: “label”: 未引用的局部变量
     1>d:\workspace\vs workspace\opencv\slidewindowcl\slidewindow\svmdetector.cpp(63): warning C4101: “val”: 未引用的局部变量
     1>d:\workspace\vs workspace\opencv\slidewindowcl\slidewindow\svmdetector.cpp(62): warning C4101: “target_label”: 未引用的局部变量
     1>d:\workspace\vs workspace\opencv\slidewindowcl\slidewindow\svmdetector.cpp(59): warning C4101: “j”: 未引用的局部变量
     1>d:\workspace\vs workspace\opencv\slidewindowcl\slidewindow\svmdetector.cpp(102): warning C4244: “/=”: 从“double”转换到“float”，可能丢失数据
     1>d:\workspace\vs workspace\opencv\slidewindowcl\slidewindow\svmdetector.cpp(128): warning C4018: “<”: 有符号/无符号不匹配
     1>d:\workspace\vs workspace\opencv\slidewindowcl\slidewindow\svmdetector.cpp(173): warning C4244: “*=”: 从“double”转换到“float”，可能丢失数据
       Link:
         S:\Microsoft\VS2013\VC\bin\link.exe /ERRORREPORT:PROMPT /OUT:"D:\Workspace\VS Workspace\OpenCV\SlideWindowCL\Debug\SlideWindow.exe" /INCREMENTAL /NOLOGO /LIBPATH:"S:\Intel\OpenCL SDK\4.6\lib\x86" opencv_ml249d.lib opencv_calib3d249d.lib opencv_contrib249d.lib opencv_core249d.lib opencv_features2d249d.lib opencv_flann249d.lib opencv_gpu249d.lib opencv_highgui249d.lib opencv_imgproc249d.lib opencv_legacy249d.lib opencv_objdetect249d.lib opencv_ts249d.lib opencv_video249d.lib opencv_nonfree249d.lib opencv_ocl249d.lib opencv_photo249d.lib opencv_stitching249d.lib opencv_superres249d.lib opencv_videostab249d.lib opencv_ml249d.lib opencv_calib3d249d.lib opencv_contrib249d.lib opencv_core249d.lib opencv_features2d249d.lib opencv_flann249d.lib opencv_gpu249d.lib opencv_highgui249d.lib opencv_imgproc249d.lib opencv_legacy249d.lib opencv_objdetect249d.lib opencv_ts249d.lib opencv_video249d.lib opencv_nonfree249d.lib opencv_ocl249d.lib opencv_photo249d.lib opencv_stitching249d.lib opencv_superres249d.lib opencv_videostab249d.lib kernel32.lib user32.lib gdi32.lib winspool.lib comdlg32.lib advapi32.lib shell32.lib ole32.lib oleaut32.lib uuid.lib odbc32.lib odbccp32.lib /MANIFEST /MANIFESTUAC:"level='asInvoker' uiAccess='false'" /manifest:embed /DEBUG /PDB:"D:\Workspace\VS Workspace\OpenCV\SlideWindowCL\Debug\SlideWindow.pdb" /SUBSYSTEM:CONSOLE /TLBID:1 /DYNAMICBASE /NXCOMPAT /IMPLIB:"D:\Workspace\VS Workspace\OpenCV\SlideWindowCL\Debug\SlideWindow.lib" /MACHINE:X86 Debug\main.obj
         Debug\MemTracker.obj
         Debug\OpenClToolsBase.obj
         Debug\OpenCLToolsPredict.obj
         Debug\rectangles.obj
         Debug\svm.obj
         Debug\SVMDetector.obj
         Debug\SvmPredict.obj
         SlideWindow.vcxproj -> D:\Workspace\VS Workspace\OpenCV\SlideWindowCL\Debug\SlideWindow.exe
     1>已完成生成项目“D:\Workspace\VS Workspace\OpenCV\SlideWindowCL\SlideWindow\SlideWindow.vcxproj”(Build 个目标)的操作。

生成成功。

已用时间 00:00:04.17
