<?xml version="1.0" encoding="utf-8"?>
<Project ToolsVersion="4.0" xmlns="http://schemas.microsoft.com/developer/msbuild/2003">
  <ItemGroup>
    <Filter Include="Source Files">
      <UniqueIdentifier>{4FC737F1-C7A5-4376-A066-2A32D752A2FF}</UniqueIdentifier>
      <Extensions>cpp;c;cc;cxx;def;odl;idl;hpj;bat;asm;asmx</Extensions>
    </Filter>
    <Filter Include="Header Files">
      <UniqueIdentifier>{93995380-89BD-4b04-88EB-625FBE52EBFB}</UniqueIdentifier>
      <Extensions>h;hh;hpp;hxx;hm;inl;inc;xsd</Extensions>
    </Filter>
    <Filter Include="Resource Files">
      <UniqueIdentifier>{67DA6AB6-F800-4c08-8B7A-83BB121AAD01}</UniqueIdentifier>
      <Extensions>rc;ico;cur;bmp;dlg;rc2;rct;bin;rgs;gif;jpg;jpeg;jpe;resx;tiff;tif;png;wav;mfcribbon-ms</Extensions>
    </Filter>
  </ItemGroup>
  <ItemGroup>
    <ClCompile Include="svm.cpp">
      <Filter>Source Files</Filter>
    </ClCompile>
    <ClCompile Include="SVMDetector.cpp">
      <Filter>Source Files</Filter>
    </ClCompile>
    <ClCompile Include="main.cpp">
      <Filter>Source Files</Filter>
    </ClCompile>
    <ClCompile Include="rectangles.cpp">
      <Filter>Source Files</Filter>
    </ClCompile>
    <ClCompile Include="OpenCLToolsPredict.cpp">
      <Filter>Source Files</Filter>
    </ClCompile>
    <ClCompile Include="OpenClToolsBase.cpp">
      <Filter>Source Files</Filter>
    </ClCompile>
    <ClCompile Include="SvmPredict.cpp">
      <Filter>Source Files</Filter>
    </ClCompile>
    <ClCompile Include="MemTracker.cpp">
      <Filter>Source Files</Filter>
    </ClCompile>
  </ItemGroup>
  <ItemGroup>
    <ClInclude Include="svm.h">
      <Filter>Header Files</Filter>
    </ClInclude>
    <ClInclude Include="SVMDetector.h">
      <Filter>Header Files</Filter>
    </ClInclude>
    <ClInclude Include="rectangles.h">
      <Filter>Header Files</Filter>
    </ClInclude>
    <ClInclude Include="IPrediction.h">
      <Filter>Header Files</Filter>
    </ClInclude>
    <ClInclude Include="Matrix.h">
      <Filter>Header Files</Filter>
    </ClInclude>
    <ClInclude Include="OpenClToolsBase.h">
      <Filter>Header Files</Filter>
    </ClInclude>
    <ClInclude Include="OpenCLToolsPredict.h">
      <Filter>Header Files</Filter>
    </ClInclude>
    <ClInclude Include="SvmPredict.h">
      <Filter>Header Files</Filter>
    </ClInclude>
    <ClInclude Include="Singleton.h">
      <Filter>Header Files</Filter>
    </ClInclude>
    <ClInclude Include="RAIIS.h">
      <Filter>Header Files</Filter>
    </ClInclude>
    <ClInclude Include="MemTracker.h">
      <Filter>Header Files</Filter>
    </ClInclude>
  </ItemGroup>
  <ItemGroup>
    <None Include="libSvmPredict.cl">
      <Filter>Resource Files</Filter>
    </None>
  </ItemGroup>
</Project>